booster[0]:
0:[f18<1.40359139] yes=1,no=2,missing=2
	1:[f5<1.1817224] yes=3,no=4,missing=4
		3:[f0<-1.3152349] yes=9,no=10,missing=10
			9:[f17<1.45407104] yes=11,no=12,missing=11
				11:[f6<0.952737451] yes=33,no=34,missing=34
					33:[f17<0.992247283] yes=95,no=96,missing=95
						95:[f9<0.228011861] yes=159,no=160,missing=160
							159:leaf=0.0217529349
							160:leaf=0.000788154954
						96:[f7<3.62816191] yes=147,no=148,missing=148
							147:leaf=0.0274861064
							148:leaf=-0.129711866
					34:[f17<0.838223934] yes=67,no=68,missing=67
						67:leaf=-0.0240894817
						68:[f10<-0.710333407] yes=83,no=84,missing=84
							83:leaf=-0.0107986387
							84:leaf=0.00956790335
				12:[f17<2.45741677] yes=39,no=40,missing=40
					39:[f6<0.952737451] yes=55,no=56,missing=56
						55:[f9<-1.42039955] yes=173,no=174,missing=174
							173:leaf=0.0277208369
							174:leaf=0.0459121391
						56:[f17<1.76245356] yes=123,no=124,missing=124
							123:leaf=0.0215511005
							124:leaf=0.0339957699
					40:[f6<0.952737451] yes=101,no=102,missing=102
						101:leaf=0.069524169
						102:[f8<-0.400895745] yes=105,no=106,missing=106
							105:leaf=0.0831095055
							106:leaf=0.0423019826
			10:[f17<-0.53764236] yes=17,no=18,missing=18
				17:[f12<-1.23761928] yes=51,no=52,missing=52
					51:[f6<0.952737451] yes=125,no=126,missing=126
						125:[f9<0.712394416] yes=187,no=188,missing=188
							187:leaf=0.0208228212
							188:leaf=-0.0833940729
						126:leaf=0.0787268803
					52:[f0<1.93652618] yes=65,no=66,missing=66
						65:[f9<0.156032205] yes=69,no=70,missing=70
							69:leaf=-0.0168438647
							70:leaf=-0.0357135609
						66:[f10<-1.0367943] yes=141,no=142,missing=142
							141:leaf=0.043976754
							142:leaf=-0.101929866
				18:[f6<0.952737451] yes=23,no=24,missing=24
					23:[f0<0.85260582] yes=47,no=48,missing=48
						47:[f17<0.178225055] yes=93,no=94,missing=94
							93:leaf=0.00530652236
							94:leaf=0.0206896011
						48:[f17<-0.394888759] yes=113,no=114,missing=114
							113:leaf=-0.0428687707
							114:leaf=-0.00635192171
					24:[f0<-0.713056922] yes=25,no=26,missing=26
						25:[f9<-0.23222658] yes=53,no=54,missing=54
							53:leaf=-0.0140131386
							54:leaf=-0.0373291112
						26:[f10<-0.576218784] yes=35,no=36,missing=36
							35:leaf=0.0275405142
							36:leaf=-0.00886224583
		4:[f0<0.250427842] yes=5,no=6,missing=6
			5:[f10<-0.564399302] yes=37,no=38,missing=38
				37:[f10<-0.833147109] yes=73,no=74,missing=74
					73:[f17<-0.753214717] yes=165,no=166,missing=166
						165:[f12<-0.00404859893] yes=199,no=200,missing=200
							199:leaf=-0.100767888
							200:leaf=-0.0261066016
						166:[f17<-0.675244927] yes=167,no=168,missing=167
							167:leaf=0.0605285689
							168:leaf=-0.00490240101
					74:[f12<-1.23761928] yes=75,no=76,missing=76
						75:[f6<0.952737451] yes=133,no=134,missing=134
							133:leaf=0.0290955398
							134:leaf=0.0896986499
						76:[f4<3.67701912] yes=109,no=110,missing=110
							109:leaf=0.0215057898
							110:leaf=-0.0107002659
				38:[f17<0.154757097] yes=49,no=50,missing=50
					49:[f10<1.89464319] yes=63,no=64,missing=64
						63:[f17<-0.936548889] yes=87,no=88,missing=88
							87:leaf=-0.0485398658
							88:leaf=-0.0182289127
						64:[f8<-0.889254749] yes=161,no=162,missing=162
							161:leaf=0.101884179
							162:leaf=0.00531240506
					50:[f8<-1.13343418] yes=191,no=192,missing=192
						191:leaf=0.0787262544
						192:leaf=0.0283176303
			6:[f13<0.676028907] yes=7,no=8,missing=8
				7:[f11<0.487824678] yes=19,no=20,missing=20
					19:[f4<3.67701912] yes=41,no=42,missing=42
						41:[f11<-0.52040875] yes=61,no=62,missing=62
							61:leaf=0.0374576822
							62:leaf=0.0546262078
						42:[f13<0.258961588] yes=111,no=112,missing=112
							111:leaf=-0.044127062
							112:leaf=0.0473899543
					20:[f4<3.67701912] yes=31,no=32,missing=32
						31:[f11<0.802319527] yes=81,no=82,missing=82
							81:leaf=0.0669122785
							82:leaf=0.0778279603
						32:[f10<-1.0227735] yes=71,no=72,missing=72
							71:leaf=0.0853429958
							72:leaf=-0.0459482819
				8:[f12<-0.636648953] yes=15,no=16,missing=16
					15:[f17<-0.235533774] yes=169,no=170,missing=170
						169:leaf=0.0302454866
						170:[f9<-1.28990662] yes=171,no=172,missing=172
							171:leaf=0.0587977022
							172:leaf=0.00955685973
					16:[f17<-1.40707552] yes=57,no=58,missing=58
						57:[f6<0.952737451] yes=129,no=130,missing=130
							129:leaf=-0.0489005186
							130:leaf=-0.0206082799
						58:[f17<-1.25964475] yes=145,no=146,missing=146
							145:leaf=0.00840162672
							146:leaf=-0.0108986758
	2:[f0<0.00955664646] yes=13,no=14,missing=14
		13:[f17<-0.577915668] yes=29,no=30,missing=29
			29:[f0<-0.592621326] yes=59,no=60,missing=60
				59:[f6<0.952737451] yes=155,no=156,missing=156
					155:[f9<0.421593279] yes=183,no=184,missing=184
						183:[f11<-0.122665308] yes=189,no=190,missing=190
							189:leaf=-0.103988364
							190:leaf=-0.0602395162
						184:leaf=-0.113179758
					156:leaf=-0.116907544
				60:[f13<-0.8532179] yes=135,no=136,missing=136
					135:leaf=-0.0990973413
					136:[f4<3.67701912] yes=137,no=138,missing=138
						137:[f9<-0.846976101] yes=139,no=140,missing=140
							139:leaf=-0.0821023956
							140:leaf=-0.0474247672
						138:[f17<-0.720333397] yes=151,no=152,missing=151
							151:leaf=-0.111088239
							152:leaf=-0.0641724914
			30:[f0<-1.1947993] yes=89,no=90,missing=90
				89:[f11<-0.760904849] yes=175,no=176,missing=176
					175:leaf=0.1018833
					176:[f13<0.119939156] yes=177,no=178,missing=178
						177:leaf=0.101880193
						178:leaf=-0.0718161687
				90:[f0<-0.953928113] yes=97,no=98,missing=98
					97:[f10<1.89464319] yes=99,no=100,missing=100
						99:[f13<-0.158105701] yes=143,no=144,missing=144
							143:leaf=-0.112077147
							144:leaf=-0.0808119178
						100:[f11<-1.51939237] yes=127,no=128,missing=128
							127:leaf=-0.0653866976
							128:leaf=-0.0176524874
					98:[f17<0.434025854] yes=107,no=108,missing=108
						107:[f10<2.02932763] yes=185,no=186,missing=186
							185:leaf=-0.0653092861
							186:leaf=-0.0551818386
						108:[f17<0.516075194] yes=157,no=158,missing=158
							157:leaf=-0.0075999666
							158:leaf=-0.0516215116
		14:[f17<-0.226792887] yes=21,no=22,missing=21
			21:[f17<-1.25964475] yes=27,no=28,missing=27
				27:[f17<-1.86818135] yes=85,no=86,missing=86
					85:[f10<-0.583339334] yes=193,no=194,missing=194
						193:[f17<-2.04421639] yes=195,no=196,missing=196
							195:leaf=-0.129723549
							196:leaf=-0.0428644493
						194:leaf=-0.0882773921
					86:[f11<0.21032922] yes=119,no=120,missing=120
						119:[f0<1.57521939] yes=121,no=122,missing=122
							121:leaf=-0.0548029207
							122:leaf=-0.083079569
						120:[f9<1.30752528] yes=205,no=206,missing=206
							205:leaf=-0.0827419758
							206:leaf=0.0246725082
				28:[f0<1.69565499] yes=45,no=46,missing=46
					45:[f9<0.783482015] yes=77,no=78,missing=78
						77:[f0<0.370863438] yes=103,no=104,missing=104
							103:leaf=-0.0549118966
							104:leaf=-0.0441182293
						78:[f8<1.06418121] yes=79,no=80,missing=80
							79:leaf=-0.0596290901
							80:leaf=-0.0332184322
					46:[f13<-0.158105701] yes=149,no=150,missing=150
						149:[f9<2.00624967] yes=153,no=154,missing=154
							153:leaf=-0.0925218537
							154:leaf=-0.021635361
						150:[f0<2.05696177] yes=163,no=164,missing=164
							163:leaf=-0.0584583618
							164:leaf=-0.103253052
			22:[f0<1.57521939] yes=43,no=44,missing=44
				43:[f17<0.583978057] yes=91,no=92,missing=92
					91:[f9<1.34170198] yes=115,no=116,missing=116
						115:[f3<10.1929407] yes=117,no=118,missing=118
							117:leaf=-0.0342756398
							118:leaf=-0.00442470983
						116:[f6<0.952737451] yes=131,no=132,missing=132
							131:leaf=-0.0322496034
							132:leaf=-0.00860502664
					92:[f9<-0.559050262] yes=203,no=204,missing=204
						203:[f3<10.1929407] yes=207,no=208,missing=208
							207:leaf=-0.0194311086
							208:leaf=-0.129711866
						204:leaf=0.00486186007
				44:[f6<0.952737451] yes=179,no=180,missing=180
					179:[f8<1.55254018] yes=181,no=182,missing=182
						181:[f0<1.69565499] yes=197,no=198,missing=198
							197:leaf=-0.0394846499
							198:leaf=-0.0770839229
						182:leaf=0.0357088223
					180:[f11<0.987316489] yes=201,no=202,missing=202
						201:leaf=-0.097297594
						202:leaf=-0.064785473
booster[1]:
0:[f0<0.370863438] yes=1,no=2,missing=2
	1:[f0<0.250427842] yes=3,no=4,missing=4
		3:[f0<-1.3152349] yes=5,no=6,missing=6
			5:[f6<0.952737451] yes=13,no=14,missing=14
				13:[f17<1.18801939] yes=29,no=30,missing=29
					29:[f17<0.921538591] yes=107,no=108,missing=107
						107:[f16<0.592102766] yes=109,no=110,missing=110
							109:leaf=0.0141799282
							110:leaf=-0.0220633261
						108:[f16<-0.175479501] yes=137,no=138,missing=138
							137:leaf=0.0111972112
							138:leaf=0.0298073553
					30:[f13<0.119939156] yes=59,no=60,missing=60
						59:[f16<1.04206479] yes=61,no=62,missing=62
							61:leaf=0.0256960616
							62:leaf=0.0521868728
						60:[f16<0.142140746] yes=103,no=104,missing=104
							103:leaf=0.0398612134
							104:leaf=0.0522952005
				14:[f17<0.966762006] yes=23,no=24,missing=23
					23:[f8<2.04089904] yes=87,no=88,missing=88
						87:[f11<-0.788654387] yes=101,no=102,missing=102
							101:leaf=0.022347087
							102:leaf=-0.0177317634
						88:[f16<-0.0166693777] yes=89,no=90,missing=90
							89:leaf=-0.0194221456
							90:leaf=0.105926678
					24:[f0<-1.4356705] yes=33,no=34,missing=34
						33:[f17<2.45741677] yes=43,no=44,missing=44
							43:leaf=0.01909546
							44:leaf=0.0445459634
						34:[f10<0.921337962] yes=49,no=50,missing=50
							49:leaf=0.000864946458
							50:leaf=0.0319691338
			6:[f6<0.952737451] yes=15,no=16,missing=16
				15:[f17<-0.142585889] yes=21,no=22,missing=22
					21:[f17<-1.18945658] yes=51,no=52,missing=52
						51:[f16<0.300950855] yes=169,no=170,missing=170
							169:leaf=-0.0515288413
							170:leaf=-0.10195893
						52:[f11<-0.575907886] yes=75,no=76,missing=76
							75:leaf=-0.0308726281
							76:leaf=-0.0178057812
					22:[f0<-1.1947993] yes=55,no=56,missing=56
						55:[f16<0.274482518] yes=71,no=72,missing=72
							71:leaf=-0.00347260083
							72:leaf=0.021731019
						56:[f8<-1.62179315] yes=99,no=100,missing=100
							99:leaf=0.045703873
							100:leaf=-0.00884495676
				16:[f17<-0.515513182] yes=27,no=28,missing=27
					27:[f10<-0.420231581] yes=69,no=70,missing=70
						69:[f16<0.0627356842] yes=141,no=142,missing=142
							141:leaf=-0.0631291643
							142:leaf=-0.0440351181
						70:[f17<-1.40707552] yes=127,no=128,missing=128
							127:leaf=-0.0818447992
							128:leaf=-0.0375686437
					28:[f16<-0.33428961] yes=47,no=48,missing=48
						47:[f17<1.89236212] yes=81,no=82,missing=82
							81:leaf=-0.036118079
							82:leaf=-0.0115149235
						48:[f0<-0.231314555] yes=85,no=86,missing=86
							85:leaf=-0.0241198186
							86:leaf=-0.0119277555
		4:[f13<0.537006438] yes=7,no=8,missing=8
			7:[f4<3.67701912] yes=9,no=10,missing=10
				9:[f11<0.478574812] yes=17,no=18,missing=18
					17:[f7<3.62816191] yes=31,no=32,missing=32
						31:[f11<-0.0671662241] yes=63,no=64,missing=64
							63:leaf=0.027251374
							64:leaf=0.037098825
						32:[f9<2.04124355] yes=133,no=134,missing=134
							133:leaf=0.051121626
							134:leaf=-0.00430584652
					18:[f7<3.62816191] yes=39,no=40,missing=40
						39:[f9<-1.17564404] yes=65,no=66,missing=66
							65:leaf=-0.00333493808
							66:leaf=0.0490467995
						40:[f9<-0.7116732] yes=181,no=182,missing=182
							181:leaf=0.0737993866
							182:leaf=0.061200548
				10:[f17<0.410771251] yes=67,no=68,missing=68
					67:[f11<-0.631406963] yes=125,no=126,missing=126
						125:leaf=0.112097524
						126:[f8<-1.13343418] yes=129,no=130,missing=130
							129:leaf=0.00397866871
							130:leaf=-0.0376820341
					68:[f16<0.353887558] yes=83,no=84,missing=84
						83:[f13<-0.8532179] yes=171,no=172,missing=172
							171:leaf=-0.120111398
							172:leaf=0.00386642106
						84:leaf=0.0829966962
			8:[f11<-2.20388103] yes=19,no=20,missing=20
				19:[f16<-2.13413763] yes=53,no=54,missing=54
					53:[f6<0.952737451] yes=139,no=140,missing=140
						139:leaf=0.00542355794
						140:leaf=0.061041601
					54:[f4<3.67701912] yes=131,no=132,missing=132
						131:[f7<3.62816191] yes=165,no=166,missing=166
							165:leaf=-0.0207779389
							166:leaf=-0.000223019961
						132:leaf=-0.116999708
				20:[f4<3.67701912] yes=41,no=42,missing=42
					41:[f7<3.62816191] yes=45,no=46,missing=46
						45:[f10<1.49256814] yes=77,no=78,missing=78
							77:leaf=0.020824872
							78:leaf=0.00737740239
						46:[f11<-0.575907886] yes=123,no=124,missing=124
							123:leaf=0.0281049293
							124:leaf=0.052784577
					42:[f10<1.91948199] yes=135,no=136,missing=136
						135:[f9<-0.506342411] yes=173,no=174,missing=174
							173:leaf=-0.010010913
							174:leaf=-0.0643519238
						136:leaf=-0.101071462
	2:[f17<-0.559682488] yes=11,no=12,missing=12
		11:[f0<2.29783297] yes=25,no=26,missing=26
			25:[f17<-1.23851788] yes=37,no=38,missing=38
				37:[f11<-0.344661653] yes=105,no=106,missing=106
					105:leaf=-0.0688140169
					106:[f0<0.491299033] yes=149,no=150,missing=150
						149:leaf=0.0218366608
						150:[f12<-0.636648953] yes=151,no=152,missing=152
							151:leaf=-0.0330228768
							152:leaf=-0.0510049686
				38:[f0<1.57521939] yes=79,no=80,missing=80
					79:[f16<1.17440653] yes=95,no=96,missing=96
						95:[f9<2.00624967] yes=111,no=112,missing=112
							111:leaf=-0.0343019664
							112:leaf=-0.0529323369
						96:[f16<1.20087492] yes=97,no=98,missing=98
							97:leaf=0.0398225673
							98:leaf=-0.0263670925
					80:[f12<-1.23761928] yes=121,no=122,missing=122
						121:[f16<0.300950855] yes=183,no=184,missing=184
							183:leaf=-0.0594154522
							184:leaf=-0.105702803
						122:[f16<2.36548233] yes=143,no=144,missing=144
							143:leaf=-0.04230389
							144:leaf=0.00706346985
			26:leaf=-0.0982974246
		12:[f17<0.477774471] yes=35,no=36,missing=35
			35:[f0<2.17739749] yes=73,no=74,missing=74
				73:[f16<-0.890125036] yes=91,no=92,missing=92
					91:[f9<-1.7982856] yes=93,no=94,missing=94
						93:leaf=0.0459715053
						94:[f0<0.611734629] yes=119,no=120,missing=120
							119:leaf=-0.0210619904
							120:leaf=-0.035778489
					92:[f9<0.735309064] yes=113,no=114,missing=114
						113:[f17<-0.55625248] yes=117,no=118,missing=118
							117:leaf=-0.0497858785
							118:leaf=-0.0234415475
						114:[f0<1.93652618] yes=115,no=116,missing=116
							115:leaf=-0.0165523291
							116:leaf=-0.102168716
				74:[f10<-0.391834915] yes=167,no=168,missing=168
					167:leaf=-0.0785772651
					168:leaf=0.0445465855
			36:[f10<-0.846181691] yes=57,no=58,missing=58
				57:[f11<0.857818604] yes=147,no=148,missing=148
					147:[f0<0.611734629] yes=157,no=158,missing=158
						157:[f16<0.00979897566] yes=179,no=180,missing=180
							179:leaf=-0.092672579
							180:leaf=-0.0335626677
						158:[f16<-1.04893517] yes=159,no=160,missing=160
							159:leaf=0.0465260111
							160:leaf=-0.0198546927
					148:[f0<0.85260582] yes=161,no=162,missing=162
						161:leaf=0.0141976271
						162:[f16<1.38615334] yes=163,no=164,missing=164
							163:leaf=-0.0394767001
							164:leaf=0.101790726
				58:[f17<1.32212305] yes=145,no=146,missing=146
					145:[f11<1.03356576] yes=153,no=154,missing=154
						153:[f0<1.3343482] yes=177,no=178,missing=178
							177:leaf=0.00556053501
							178:leaf=-0.0503298827
						154:[f16<1.57143188] yes=155,no=156,missing=156
							155:leaf=0.0193035472
							156:leaf=0.0870768204
					146:[f16<-0.360757977] yes=175,no=176,missing=176
						175:leaf=0.0113551216
						176:leaf=0.0713091344
booster[2]:
0:[f18<1.40359139] yes=1,no=2,missing=2
	1:[f5<1.1817224] yes=3,no=4,missing=4
		3:[f17<1.35407615] yes=9,no=10,missing=9
			9:[f17<-0.467908829] yes=13,no=14,missing=14
				13:[f12<-1.23761928] yes=19,no=20,missing=20
					19:[f16<-0.546036422] yes=189,no=190,missing=190
						189:[f0<-0.592621326] yes=191,no=192,missing=192
							191:leaf=0.0259456933
							192:leaf=0.0962380916
						190:leaf=0.0941709504
					20:[f17<-0.864910662] yes=43,no=44,missing=44
						43:[f8<0.0874632299] yes=51,no=52,missing=52
							51:leaf=-0.0155519415
							52:leaf=-0.0434930697
						44:[f11<1.03356576] yes=49,no=50,missing=50
							49:leaf=-0.0128218932
							50:leaf=0.0754637867
				14:[f17<-0.420829803] yes=47,no=48,missing=48
					47:[f6<0.952737451] yes=87,no=88,missing=88
						87:leaf=0.00814454723
						88:[f0<-0.592621326] yes=151,no=152,missing=152
							151:leaf=0.0222639777
							152:leaf=0.0635161474
					48:[f6<0.952737451] yes=61,no=62,missing=62
						61:[f11<0.737570584] yes=95,no=96,missing=96
							95:leaf=0.0121602826
							96:leaf=-0.0016432259
						62:[f0<-0.592621326] yes=63,no=64,missing=64
							63:leaf=-0.00370119303
							64:leaf=0.0161230192
			10:[f0<-1.4356705] yes=17,no=18,missing=18
				17:[f11<-0.289162576] yes=67,no=68,missing=68
					67:[f17<1.96759486] yes=69,no=70,missing=70
						69:[f9<-1.02149415] yes=117,no=118,missing=118
							117:leaf=0.0290925372
							118:leaf=0.0030980187
						70:[f6<0.952737451] yes=71,no=72,missing=72
							71:leaf=0.0377809033
							72:leaf=0.0201997384
					68:[f9<0.147363678] yes=73,no=74,missing=74
						73:[f10<-1.0227735] yes=79,no=80,missing=80
							79:leaf=-0.00908907503
							80:leaf=0.041516725
						74:[f9<0.172857672] yes=75,no=76,missing=76
							75:leaf=-0.0602964088
							76:leaf=0.0252683107
				18:[f0<-1.3152349] yes=55,no=56,missing=56
					55:[f16<-1.55183387] yes=59,no=60,missing=60
						59:[f9<-1.09151483] yes=133,no=134,missing=134
							133:leaf=-0.0667145699
							134:leaf=-0.00978319254
						60:[f12<-0.320348799] yes=143,no=144,missing=144
							143:leaf=0.0270943679
							144:leaf=0.0145465061
					56:[f11<-0.0949157625] yes=57,no=58,missing=58
						57:[f16<0.989128053] yes=103,no=104,missing=104
							103:leaf=0.0179362744
							104:leaf=0.0596844479
						58:[f6<0.952737451] yes=93,no=94,missing=94
							93:leaf=0.00692296401
							94:leaf=-0.0116851935
		4:[f0<0.250427842] yes=5,no=6,missing=6
			5:[f12<-1.23761928] yes=29,no=30,missing=30
				29:[f8<0.820001662] yes=37,no=38,missing=38
					37:[f8<0.331642717] yes=185,no=186,missing=186
						185:leaf=0.0914637148
						186:leaf=0.046863284
					38:[f16<1.04206479] yes=153,no=154,missing=154
						153:[f16<0.221545801] yes=155,no=156,missing=156
							155:leaf=0.0185025707
							156:leaf=-0.0717834607
						154:leaf=0.0586488619
				30:[f8<-0.400895745] yes=31,no=32,missing=32
					31:[f9<-0.90316987] yes=85,no=86,missing=86
						85:leaf=0.035094019
						86:[f11<-0.286079288] yes=107,no=108,missing=108
							107:leaf=0.0415272489
							108:leaf=0.000458589086
					32:[f13<0.258961588] yes=39,no=40,missing=40
						39:[f10<-0.317057014] yes=53,no=54,missing=54
							53:leaf=-0.00725344941
							54:leaf=-0.0294468906
						40:[f2<2.74040127] yes=123,no=124,missing=124
							123:leaf=0.00571037782
							124:leaf=-0.0103273923
			6:[f11<-0.807154059] yes=7,no=8,missing=8
				7:[f11<-1.79688787] yes=21,no=22,missing=22
					21:[f11<-2.80512118] yes=105,no=106,missing=106
						105:[f16<1.2273432] yes=149,no=150,missing=150
							149:leaf=-0.0218217298
							150:leaf=0.0197949074
						106:[f16<-0.731314898] yes=131,no=132,missing=132
							131:leaf=-0.0110300081
							132:leaf=0.00588982785
					22:[f16<1.12146986] yes=77,no=78,missing=78
						77:[f11<-1.58414125] yes=175,no=176,missing=176
							175:leaf=0.0289146286
							176:leaf=0.0155133838
						78:leaf=-0.00822425727
				8:[f11<0.534073889] yes=27,no=28,missing=28
					27:[f17<0.434025854] yes=65,no=66,missing=65
						65:[f17<-0.632615209] yes=125,no=126,missing=125
							125:leaf=0.0273259804
							126:leaf=0.0341773257
						66:leaf=0.0649434701
					28:[f16<-1.20774531] yes=183,no=184,missing=184
						183:leaf=0.0542116426
						184:leaf=0.0415627733
	2:[f0<0.370863438] yes=11,no=12,missing=12
		11:[f17<-0.52754879] yes=23,no=24,missing=23
			23:[f0<-0.713056922] yes=41,no=42,missing=42
				41:[f16<0.909722984] yes=165,no=166,missing=166
					165:leaf=-0.0752180591
					166:[f17<-0.583734751] yes=167,no=168,missing=167
						167:leaf=-0.057664521
						168:leaf=0.0615319423
				42:[f10<-0.300888836] yes=119,no=120,missing=120
					119:[f6<0.952737451] yes=127,no=128,missing=128
						127:[f17<-1.40707552] yes=129,no=130,missing=130
							129:leaf=0.00658907834
							130:leaf=-0.0514268428
						128:[f17<-0.709398448] yes=179,no=180,missing=179
							179:leaf=-0.07939367
							180:leaf=-0.0567157269
					120:[f9<1.95688331] yes=145,no=146,missing=146
						145:[f9<-0.404673129] yes=147,no=148,missing=148
							147:leaf=-0.0495110787
							148:leaf=-0.0310150124
						146:[f16<1.75671029] yes=181,no=182,missing=182
							181:leaf=-0.0851950571
							182:leaf=0.040789634
			24:[f16<-0.704846561] yes=45,no=46,missing=46
				45:[f11<1.19081318] yes=81,no=82,missing=82
					81:[f6<0.952737451] yes=135,no=136,missing=136
						135:[f11<1.0705651] yes=139,no=140,missing=140
							139:leaf=-0.01816421
							140:leaf=-0.0772747546
						136:[f16<-1.76358068] yes=137,no=138,missing=138
							137:leaf=-0.00964354817
							138:leaf=-0.0418655612
					82:leaf=0.0866724774
				46:[f16<1.9949255] yes=83,no=84,missing=84
					83:[f11<0.17332983] yes=97,no=98,missing=98
						97:[f6<0.952737451] yes=101,no=102,missing=102
							101:leaf=-0.0276406072
							102:leaf=-0.0435542352
						98:[f0<-1.07436371] yes=99,no=100,missing=100
							99:leaf=-0.0795515031
							100:leaf=-0.0461856052
					84:[f10<-0.583339334] yes=187,no=188,missing=188
						187:leaf=0.0112020774
						188:leaf=0.121644773
		12:[f17<-0.936548889] yes=15,no=16,missing=15
			15:[f17<-1.64574587] yes=35,no=36,missing=36
				35:[f16<1.9949255] yes=163,no=164,missing=164
					163:leaf=-0.0645009056
					164:leaf=0.0402577668
				36:[f9<-0.28738904] yes=141,no=142,missing=142
					141:leaf=-0.0479668006
					142:[f16<1.51849508] yes=169,no=170,missing=170
						169:[f16<0.883254647] yes=171,no=172,missing=172
							171:leaf=-0.0341221876
							172:leaf=-0.0508303307
						170:[f8<-0.156716257] yes=173,no=174,missing=174
							173:leaf=-0.0824881643
							174:leaf=-0.0093535902
			16:[f0<1.57521939] yes=25,no=26,missing=26
				25:[f17<0.921538591] yes=33,no=34,missing=34
					33:[f12<0.628551781] yes=89,no=90,missing=90
						89:[f16<-1.36655545] yes=91,no=92,missing=92
							91:leaf=-0.00784713402
							92:leaf=-0.0277235489
						90:[f10<-0.197966293] yes=115,no=116,missing=116
							115:leaf=-0.0161630679
							116:leaf=-0.0257399157
					34:[f8<-0.156716257] yes=157,no=158,missing=158
						157:[f16<-0.0166693777] yes=159,no=160,missing=160
							159:leaf=-0.038862817
							160:leaf=0.0319243185
						158:leaf=0.0528446734
				26:[f8<0.331642717] yes=109,no=110,missing=110
					109:[f16<-1.97532749] yes=113,no=114,missing=114
						113:leaf=0.124628671
						114:[f10<-0.661035359] yes=121,no=122,missing=122
							121:leaf=-0.05642353
							122:leaf=-0.0368691385
					110:[f1<2.45811582] yes=111,no=112,missing=112
						111:[f12<0.944851935] yes=177,no=178,missing=178
							177:leaf=-0.024154868
							178:leaf=0.0169351771
						112:[f11<1.19081318] yes=161,no=162,missing=162
							161:leaf=-0.0468446799
							162:leaf=-0.0974118933
booster[3]:
0:[f18<1.40359139] yes=1,no=2,missing=2
	1:[f5<1.1817224] yes=3,no=4,missing=4
		3:[f0<-1.3152349] yes=9,no=10,missing=10
			9:[f17<1.76245356] yes=15,no=16,missing=15
				15:[f6<0.952737451] yes=49,no=50,missing=50
					49:[f16<-0.387226313] yes=139,no=140,missing=140
						139:[f10<0.157553732] yes=141,no=142,missing=142
							141:leaf=0.0122454762
							142:leaf=-0.0137156146
						140:[f17<0.921538591] yes=143,no=144,missing=143
							143:leaf=-0.000784172385
							144:leaf=0.0194357596
					50:[f17<0.477774471] yes=51,no=52,missing=51
						51:[f9<1.34170198] yes=181,no=182,missing=182
							181:leaf=-0.0240103379
							182:leaf=0.0661029294
						52:[f12<1.26115215] yes=101,no=102,missing=102
							101:leaf=0.00704733422
							102:leaf=-0.018101735
				16:[f10<2.8224988] yes=85,no=86,missing=86
					85:[f10<-0.0583659075] yes=145,no=146,missing=146
						145:[f9<0.503688455] yes=147,no=148,missing=148
							147:leaf=0.0267661456
							148:leaf=0.0120300418
						146:[f9<-0.941470623] yes=179,no=180,missing=180
							179:leaf=0.0190882273
							180:leaf=0.00943032652
					86:leaf=0.0389130898
			10:[f11<0.86706847] yes=13,no=14,missing=14
				13:[f9<-0.23222658] yes=17,no=18,missing=18
					17:[f6<0.952737451] yes=29,no=30,missing=30
						29:[f0<-0.953928113] yes=47,no=48,missing=48
							47:leaf=0.0207325146
							48:leaf=0.0032235526
						30:[f10<-0.01160831] yes=43,no=44,missing=44
							43:leaf=-0.014862692
							44:leaf=0.00261757686
					18:[f13<-0.8532179] yes=23,no=24,missing=24
						23:[f16<0.036267329] yes=127,no=128,missing=128
							127:leaf=0.002501935
							128:leaf=0.0305071156
						24:[f6<0.952737451] yes=39,no=40,missing=40
							39:leaf=-0.00867841672
							40:leaf=-0.0222665183
				14:[f17<-0.102104589] yes=41,no=42,missing=42
					41:[f0<-0.713056922] yes=155,no=156,missing=156
						155:[f9<0.484549493] yes=177,no=178,missing=178
							177:leaf=-0.0416537449
							178:leaf=0.00760047324
						156:[f0<2.65913987] yes=157,no=158,missing=158
							157:leaf=0.00946647953
							158:leaf=-0.0498366654
					42:[f16<-2.00179577] yes=93,no=94,missing=94
						93:leaf=-0.127642035
						94:[f16<-1.04893517] yes=99,no=100,missing=100
							99:leaf=0.0612849966
							100:leaf=0.0219858736
		4:[f0<0.250427842] yes=5,no=6,missing=6
			5:[f17<-0.820381939] yes=33,no=34,missing=34
				33:[f11<-0.261413038] yes=37,no=38,missing=38
					37:[f16<-1.26068199] yes=73,no=74,missing=74
						73:[f1<2.45811582] yes=75,no=76,missing=76
							75:leaf=0.0553707108
							76:leaf=-0.0789965019
						74:[f11<-2.74962211] yes=105,no=106,missing=106
							105:leaf=0.0197126921
							106:leaf=-0.0572434738
					38:[f17<-0.86224252] yes=119,no=120,missing=120
						119:[f0<-0.231314555] yes=121,no=122,missing=122
							121:leaf=-0.0183952153
							122:leaf=0.026814891
						120:leaf=-0.0615760013
				34:[f10<-0.647404969] yes=61,no=62,missing=62
					61:[f16<0.274482518] yes=65,no=66,missing=66
						65:[f11<1.33881068] yes=69,no=70,missing=70
							69:leaf=0.00202128547
							70:leaf=-0.122544646
						66:[f9<0.172857672] yes=71,no=72,missing=72
							71:leaf=0.0161535945
							72:leaf=0.0540433899
					62:[f6<0.952737451] yes=63,no=64,missing=64
						63:[f16<-0.440163016] yes=83,no=84,missing=84
							83:leaf=0.0238201376
							84:leaf=0.000934705837
						64:[f16<1.2538116] yes=67,no=68,missing=68
							67:leaf=-0.00690534851
							68:leaf=-0.0405503586
			6:[f11<-0.575907886] yes=7,no=8,missing=8
				7:[f12<1.89375257] yes=35,no=36,missing=36
					35:[f4<3.67701912] yes=89,no=90,missing=90
						89:[f17<-0.33987996] yes=103,no=104,missing=104
							103:leaf=0.0180617571
							104:leaf=0.00492208544
						90:[f16<0.00979897566] yes=95,no=96,missing=96
							95:leaf=0.0448815599
							96:leaf=-0.139021769
					36:[f16<-1.20774531] yes=91,no=92,missing=92
						91:[f16<-1.26068199] yes=175,no=176,missing=176
							175:leaf=0.0085727293
							176:leaf=0.0454476476
						92:[f11<-2.80512118] yes=125,no=126,missing=126
							125:leaf=-0.0175525323
							126:leaf=-0.000661302474
				8:[f11<0.663571775] yes=21,no=22,missing=22
					21:[f4<3.67701912] yes=57,no=58,missing=58
						57:[f11<0.136330441] yes=77,no=78,missing=78
							77:leaf=0.022176424
							78:leaf=0.0288832858
						58:[f17<-0.710925579] yes=59,no=60,missing=60
							59:leaf=-0.110813767
							60:leaf=0.0176163316
					22:[f4<3.67701912] yes=45,no=46,missing=46
						45:[f17<-0.333376557] yes=167,no=168,missing=168
							167:leaf=0.0312226731
							168:leaf=0.0386254303
						46:[f6<0.952737451] yes=187,no=188,missing=188
							187:leaf=0.0119012799
							188:leaf=-0.0431262031
	2:[f0<0.00955664646] yes=11,no=12,missing=12
		11:[f13<0.676028907] yes=27,no=28,missing=28
			27:[f13<-0.8532179] yes=97,no=98,missing=98
				97:[f6<0.952737451] yes=107,no=108,missing=108
					107:[f16<-0.440163016] yes=129,no=130,missing=130
						129:[f17<-0.403140396] yes=131,no=132,missing=132
							131:leaf=-0.0466492921
							132:leaf=0.0484956317
						130:leaf=-0.0542463847
					108:[f10<-0.86638701] yes=183,no=184,missing=184
						183:leaf=-0.0357248783
						184:leaf=-0.0683370829
				98:[f0<-1.07436371] yes=133,no=134,missing=134
					133:[f9<-0.374564469] yes=159,no=160,missing=160
						159:leaf=-0.0342110023
						160:leaf=-0.0715836361
					134:[f17<0.112533018] yes=135,no=136,missing=135
						135:[f10<1.28319001] yes=185,no=186,missing=186
							185:leaf=-0.042813085
							186:leaf=-0.0207811557
						136:[f16<-0.916593373] yes=137,no=138,missing=138
							137:leaf=0.0162246414
							138:leaf=-0.0290337708
			28:[f11<-1.83388722] yes=111,no=112,missing=112
				111:[f0<-0.351750135] yes=113,no=114,missing=114
					113:[f6<0.952737451] yes=169,no=170,missing=170
						169:[f16<-0.281352907] yes=171,no=172,missing=172
							171:leaf=-0.0281753894
							172:leaf=-0.072596021
						170:[f11<-2.20388103] yes=173,no=174,missing=174
							173:leaf=-0.00941255316
							174:leaf=-0.0545303263
					114:leaf=-0.0661694407
				112:[f16<1.70377362] yes=153,no=154,missing=154
					153:[f16<0.989128053] yes=163,no=164,missing=164
						163:[f16<-0.307821274] yes=165,no=166,missing=166
							165:leaf=-0.0285252091
							166:leaf=-0.0104942471
						164:[f11<-1.44539356] yes=189,no=190,missing=190
							189:leaf=0.0044731698
							190:leaf=-0.0580340512
					154:leaf=0.0964892879
		12:[f0<1.93652618] yes=19,no=20,missing=20
			19:[f17<-0.820381939] yes=25,no=26,missing=26
				25:[f13<-0.71419543] yes=115,no=116,missing=116
					115:[f16<0.195077449] yes=117,no=118,missing=118
						117:[f17<-1.64574587] yes=161,no=162,missing=162
							161:leaf=-0.0832276344
							162:leaf=-0.0243398156
						118:[f11<0.401492745] yes=123,no=124,missing=124
							123:leaf=0.00210215524
							124:leaf=0.134743929
					116:[f16<-0.0166693777] yes=149,no=150,missing=150
						149:[f9<-0.980830014] yes=151,no=152,missing=152
							151:leaf=0.00329826842
							152:leaf=-0.0307635795
						150:[f9<2.26953721] yes=191,no=192,missing=192
							191:leaf=-0.0359201506
							192:leaf=0.0343638361
				26:[f17<0.270952851] yes=31,no=32,missing=31
					31:[f13<-0.8532179] yes=79,no=80,missing=80
						79:[f16<2.15373564] yes=81,no=82,missing=82
							81:leaf=-0.0268928576
							82:leaf=0.0549507402
						80:[f0<0.611734629] yes=87,no=88,missing=88
							87:leaf=-0.0233172867
							88:leaf=-0.0162440483
					32:[f0<1.09347701] yes=53,no=54,missing=54
						53:[f16<-0.572504818] yes=109,no=110,missing=110
							109:leaf=-0.0296033304
							110:leaf=-0.00664988114
						54:[f16<0.93619132] yes=55,no=56,missing=56
							55:leaf=-0.000899749459
							56:leaf=0.0443214998
			20:leaf=-0.0589246266
booster[4]:
0:[f18<1.40359139] yes=1,no=2,missing=2
	1:[f0<0.250427842] yes=3,no=4,missing=4
		3:[f0<-1.3152349] yes=9,no=10,missing=10
			9:[f17<1.27889931] yes=11,no=12,missing=11
				11:[f6<0.952737451] yes=49,no=50,missing=50
					49:[f9<0.926454723] yes=87,no=88,missing=88
						87:[f16<-1.12834024] yes=129,no=130,missing=130
							129:leaf=-0.00213497551
							130:leaf=0.026506735
						88:[f11<0.46007511] yes=161,no=162,missing=162
							161:leaf=-0.0108267823
							162:leaf=0.0204812624
					50:[f17<0.434025854] yes=73,no=74,missing=73
						73:[f10<-0.833704352] yes=149,no=150,missing=150
							149:leaf=-0.124159403
							150:leaf=-0.0281278566
						74:[f8<-0.400895745] yes=75,no=76,missing=76
							75:leaf=0.0130620264
							76:leaf=-0.00838574115
				12:[f6<0.952737451] yes=33,no=34,missing=34
					33:[f17<2.35550618] yes=65,no=66,missing=66
						65:[f16<-1.94885921] yes=173,no=174,missing=174
							173:leaf=-0.00631976128
							174:leaf=0.0393747389
						66:[f16<-0.757783294] yes=197,no=198,missing=198
							197:leaf=0.0464945808
							198:leaf=0.0644926131
					34:[f9<0.503688455] yes=59,no=60,missing=60
						59:[f0<-1.4356705] yes=91,no=92,missing=92
							91:leaf=0.0343763195
							92:leaf=0.0208072793
						60:[f16<-1.04893517] yes=67,no=68,missing=68
							67:leaf=-0.0386706106
							68:leaf=0.0157961585
			10:[f6<0.952737451] yes=23,no=24,missing=24
				23:[f17<0.210528821] yes=35,no=36,missing=36
					35:[f12<-0.636648953] yes=53,no=54,missing=54
						53:[f10<2.15243745] yes=137,no=138,missing=138
							137:leaf=0.00677308673
							138:leaf=0.0559850894
						54:[f10<-1.08707762] yes=93,no=94,missing=94
							93:leaf=0.0429331772
							94:leaf=-0.0131556839
					36:[f2<2.74040127] yes=99,no=100,missing=100
						99:[f17<2.15058374] yes=117,no=118,missing=118
							117:leaf=0.00678885868
							118:leaf=0.0344992951
						100:[f16<-0.995998442] yes=185,no=186,missing=186
							185:leaf=-0.017882403
							186:leaf=0.0416466072
				24:[f12<-1.23761928] yes=37,no=38,missing=38
					37:[f0<-0.833492517] yes=41,no=42,missing=42
						41:[f17<1.18801939] yes=183,no=184,missing=184
							183:leaf=-0.0222891923
							184:leaf=-0.11062818
						42:[f8<0.820001662] yes=43,no=44,missing=44
							43:leaf=0.0876915976
							44:leaf=-0.0205786619
					38:[f17<-0.590806663] yes=39,no=40,missing=39
						39:[f0<-0.472185731] yes=63,no=64,missing=64
							63:leaf=-0.0557241291
							64:leaf=-0.0226093158
						40:[f0<-0.351750135] yes=79,no=80,missing=80
							79:leaf=-0.0168596637
							80:leaf=-0.00260360818
		4:[f0<0.370863438] yes=5,no=6,missing=6
			5:[f11<-0.844153464] yes=7,no=8,missing=8
				7:[f11<-1.79688787] yes=21,no=22,missing=22
					21:[f17<-1.40707552] yes=47,no=48,missing=48
						47:[f16<1.2538116] yes=153,no=154,missing=154
							153:leaf=-0.0377546549
							154:leaf=0.0460922495
						48:[f1<2.45811582] yes=55,no=56,missing=56
							55:leaf=0.00279761059
							56:leaf=-0.0345610343
					22:[f8<0.331642717] yes=169,no=170,missing=170
						169:leaf=0.0301100072
						170:[f16<1.28027987] yes=207,no=208,missing=208
							207:leaf=0.0184280183
							208:leaf=-0.00324549945
				8:[f11<0.401492745] yes=17,no=18,missing=18
					17:[f11<-0.224413633] yes=51,no=52,missing=52
						51:[f7<3.62816191] yes=111,no=112,missing=112
							111:leaf=0.0349163339
							112:leaf=0.0504032187
						52:[f10<0.601117551] yes=155,no=156,missing=156
							155:leaf=0.0506139956
							156:leaf=0.0325970575
					18:[f4<3.67701912] yes=29,no=30,missing=30
						29:[f17<-0.620744228] yes=131,no=132,missing=132
							131:leaf=0.0530416183
							132:leaf=0.0649603307
						30:[f10<-1.0367943] yes=133,no=134,missing=134
							133:leaf=0.0567817502
							134:leaf=-0.0374400392
			6:[f17<-0.619733751] yes=13,no=14,missing=14
				13:[f16<-0.0166693777] yes=57,no=58,missing=58
					57:[f0<1.93652618] yes=77,no=78,missing=78
						77:[f12<-1.23761928] yes=135,no=136,missing=136
							135:leaf=0.102429926
							136:leaf=-0.0156190768
						78:leaf=-0.127210751
					58:[f0<2.65913987] yes=119,no=120,missing=120
						119:[f10<0.390381277] yes=171,no=172,missing=172
							171:leaf=-0.0368219353
							172:leaf=-0.0549142584
						120:leaf=-0.124153495
				14:[f10<-0.576218784] yes=101,no=102,missing=102
					101:[f6<0.952737451] yes=103,no=104,missing=104
						103:[f0<1.4547838] yes=109,no=110,missing=110
							109:leaf=0.00454126997
							110:leaf=-0.0324905589
						104:[f11<1.18156326] yes=107,no=108,missing=108
							107:leaf=0.0135334758
							108:leaf=0.0485258065
					102:[f11<0.401492745] yes=105,no=106,missing=106
						105:[f8<0.0874632299] yes=123,no=124,missing=124
							123:leaf=0.0228381008
							124:leaf=-0.00966247823
						106:[f16<0.459760994] yes=165,no=166,missing=166
							165:leaf=-0.0037257853
							166:leaf=-0.0300114769
	2:[f0<0.00955664646] yes=15,no=16,missing=16
		15:[f17<-0.577915668] yes=27,no=28,missing=28
			27:[f6<0.952737451] yes=143,no=144,missing=144
				143:[f16<1.43909001] yes=163,no=164,missing=164
					163:[f1<2.45811582] yes=203,no=204,missing=204
						203:[f16<0.671507835] yes=205,no=206,missing=206
							205:leaf=-0.0601872765
							206:leaf=-0.0904665664
						204:leaf=-0.0948566273
					164:leaf=0.0164708979
				144:[f11<0.0900812] yes=145,no=146,missing=146
					145:[f8<-1.62179315] yes=147,no=148,missing=148
						147:leaf=0.0037166907
						148:[f10<2.89738226] yes=189,no=190,missing=190
							189:leaf=-0.0808670074
							190:leaf=-0.0270094164
					146:[f9<1.01410556] yes=209,no=210,missing=210
						209:[f16<0.724444509] yes=211,no=212,missing=212
							211:leaf=-0.112483971
							212:leaf=-0.0607422553
						210:[f9<1.25494576] yes=213,no=214,missing=214
							213:leaf=-0.0380599424
							214:leaf=-0.0960569605
			28:[f6<0.952737451] yes=61,no=62,missing=62
				61:[f16<-0.943061769] yes=83,no=84,missing=84
					83:[f16<-1.34008706] yes=85,no=86,missing=86
						85:[f12<-1.23761928] yes=191,no=192,missing=192
							191:leaf=0.0531417914
							192:leaf=-0.0512883104
						86:[f17<0.0716413856] yes=121,no=122,missing=121
							121:leaf=-0.020497581
							122:leaf=0.0388621688
					84:[f16<1.88905203] yes=139,no=140,missing=140
						139:[f17<2.50429893] yes=159,no=160,missing=159
							159:leaf=-0.051652573
							160:leaf=0.0194406658
						140:[f8<0.575822175] yes=195,no=196,missing=196
							195:leaf=0.0824502856
							196:leaf=-0.0641007423
				62:[f13<-0.8532179] yes=125,no=126,missing=126
					125:[f8<0.820001662] yes=127,no=128,missing=128
						127:[f11<1.0705651] yes=215,no=216,missing=216
							215:leaf=-0.10782294
							216:leaf=-0.0656420365
						128:[f0<-0.713056922] yes=201,no=202,missing=202
							201:leaf=-0.0840406492
							202:leaf=0.00442562392
					126:[f12<-0.00404859893] yes=141,no=142,missing=142
						141:[f4<3.67701912] yes=151,no=152,missing=152
							151:leaf=-0.0546683446
							152:leaf=-0.0275596809
						142:[f9<-1.021819] yes=157,no=158,missing=158
							157:leaf=-0.0524187982
							158:leaf=-0.0751534924
		16:[f17<-0.604030311] yes=19,no=20,missing=20
			19:[f17<-2.04421639] yes=31,no=32,missing=32
				31:leaf=-0.101838708
				32:[f8<-1.86597264] yes=81,no=82,missing=82
					81:leaf=0.0304074455
					82:[f17<-1.25964475] yes=95,no=96,missing=96
						95:[f0<1.69565499] yes=97,no=98,missing=98
							97:leaf=-0.0560091212
							98:leaf=-0.0948002711
						96:[f0<2.05696177] yes=193,no=194,missing=194
							193:leaf=-0.0472364798
							194:leaf=-0.0847763494
			20:[f0<1.57521939] yes=25,no=26,missing=26
				25:[f17<1.08428586] yes=45,no=46,missing=45
					45:[f17<-0.226792887] yes=69,no=70,missing=70
						69:[f0<0.973041415] yes=71,no=72,missing=72
							71:leaf=-0.0400715508
							72:leaf=-0.0281047244
						70:[f16<-2.18707442] yes=167,no=168,missing=168
							167:leaf=0.0490497425
							168:leaf=-0.0276179183
					46:[f16<-0.0696060881] yes=175,no=176,missing=176
						175:[f16<-0.678378224] yes=177,no=178,missing=178
							177:leaf=0.076358892
							178:leaf=-0.0388827808
						176:leaf=0.0533659533
				26:[f16<0.856786311] yes=89,no=90,missing=90
					89:[f9<2.29991651] yes=113,no=114,missing=114
						113:[f11<0.238078773] yes=115,no=116,missing=116
							115:leaf=-0.0317959189
							116:leaf=-0.0811898187
						114:[f1<2.45811582] yes=187,no=188,missing=188
							187:leaf=-0.0033417719
							188:leaf=-0.0957698673
					90:[f9<-0.332958013] yes=179,no=180,missing=180
						179:[f16<0.93619132] yes=199,no=200,missing=200
							199:leaf=0.108113892
							200:leaf=-0.00944627728
						180:[f11<0.885568142] yes=181,no=182,missing=182
							181:leaf=-0.0961912721
							182:leaf=-0.0403943211
booster[5]:
0:[f18<1.40359139] yes=1,no=2,missing=2
	1:[f5<1.1817224] yes=3,no=4,missing=4
		3:[f17<1.96759486] yes=9,no=10,missing=9
			9:[f17<-0.709398448] yes=13,no=14,missing=13
				13:[f13<-0.8532179] yes=29,no=30,missing=30
					29:[f1<2.45811582] yes=77,no=78,missing=78
						77:leaf=0.0378452539
						78:[f9<-0.0712142363] yes=187,no=188,missing=188
							187:leaf=0.0442517996
							188:leaf=-0.0824812204
					30:[f9<2.04124355] yes=109,no=110,missing=110
						109:[f10<0.454336047] yes=139,no=140,missing=140
							139:leaf=-0.00830644928
							140:leaf=-0.021908734
						110:[f16<0.830317914] yes=181,no=182,missing=182
							181:leaf=-0.0237868913
							182:leaf=-0.0812836662
				14:[f6<0.952737451] yes=17,no=18,missing=18
					17:[f13<-0.8532179] yes=27,no=28,missing=28
						27:[f2<2.74040127] yes=121,no=122,missing=122
							121:leaf=-0.00490575749
							122:leaf=0.0245180745
						28:[f17<-0.62608391] yes=103,no=104,missing=104
							103:leaf=0.0326064713
							104:leaf=0.00860931166
					18:[f13<-0.8532179] yes=33,no=34,missing=34
						33:[f17<-0.394888759] yes=35,no=36,missing=36
							35:leaf=0.0399374738
							36:leaf=0.00394953787
						34:[f16<0.195077449] yes=49,no=50,missing=50
							49:leaf=-0.00710485503
							50:leaf=0.00126833329
			10:[f17<2.60833263] yes=23,no=24,missing=24
				23:[f16<1.49202681] yes=89,no=90,missing=90
					89:[f6<0.952737451] yes=163,no=164,missing=164
						163:[f16<1.43909001] yes=167,no=168,missing=168
							167:leaf=0.013892265
							168:leaf=-0.117239363
						164:[f16<0.671507835] yes=165,no=166,missing=166
							165:leaf=0.00267240941
							166:leaf=0.0228635259
					90:leaf=0.0351784937
				24:[f16<1.49202681] yes=179,no=180,missing=180
					179:leaf=0.0309266225
					180:leaf=-0.0347129107
		4:[f11<-0.196664095] yes=5,no=6,missing=6
			5:[f17<-0.851854503] yes=19,no=20,missing=20
				19:[f13<-0.99224031] yes=81,no=82,missing=82
					81:leaf=0.110999465
					82:[f16<2.15373564] yes=125,no=126,missing=126
						125:[f9<-0.846976101] yes=127,no=128,missing=128
							127:leaf=-0.000211885766
							128:leaf=-0.0134482114
						126:leaf=0.051248882
				20:[f9<-1.15095854] yes=51,no=52,missing=52
					51:[f16<1.59790015] yes=61,no=62,missing=62
						61:[f16<0.856786311] yes=63,no=64,missing=64
							63:leaf=-0.000526646152
							64:leaf=-0.0392394848
						62:leaf=0.0676045641
					52:[f4<3.67701912] yes=53,no=54,missing=54
						53:[f16<-0.916593373] yes=111,no=112,missing=112
							111:leaf=0.00422604522
							112:leaf=0.0139565021
						54:[f11<-0.585157692] yes=55,no=56,missing=56
							55:leaf=-0.0238099657
							56:leaf=0.0124105792
			6:[f4<3.67701912] yes=7,no=8,missing=8
				7:[f2<2.74040127] yes=11,no=12,missing=12
					11:[f9<-0.340347588] yes=37,no=38,missing=38
						37:[f16<0.856786311] yes=99,no=100,missing=100
							99:leaf=0.0127460184
							100:leaf=0.0246391688
						38:[f10<0.536442459] yes=59,no=60,missing=60
							59:leaf=0.0204165243
							60:leaf=0.0362007283
					12:[f16<-1.76358068] yes=25,no=26,missing=26
						25:leaf=0.0765903965
						26:[f16<1.41262174] yes=107,no=108,missing=108
							107:leaf=0.00137514272
							108:leaf=-0.0271131843
				8:[f13<-0.158105701] yes=83,no=84,missing=84
					83:[f17<0.260081321] yes=85,no=86,missing=86
						85:[f9<0.104504205] yes=87,no=88,missing=88
							87:leaf=0.0528340787
							88:leaf=-0.00972134154
						86:[f9<1.01223826] yes=153,no=154,missing=154
							153:leaf=0.0321450941
							154:leaf=0.111194961
					84:[f10<-0.819840014] yes=105,no=106,missing=106
						105:[f6<0.952737451] yes=137,no=138,missing=138
							137:leaf=-0.0106105665
							138:leaf=-0.0548246168
						106:[f10<-0.346361876] yes=115,no=116,missing=116
							115:leaf=0.00704113441
							116:leaf=-0.018634703
	2:[f17<-0.244993553] yes=15,no=16,missing=15
		15:[f9<-1.27350175] yes=21,no=22,missing=22
			21:[f17<-0.669926822] yes=47,no=48,missing=47
				47:[f16<-0.678378224] yes=133,no=134,missing=134
					133:[f16<-0.837188303] yes=145,no=146,missing=146
						145:leaf=-0.0157518331
						146:leaf=-0.07467518
					134:[f16<-0.493099749] yes=135,no=136,missing=136
						135:[f11<-0.0949157625] yes=161,no=162,missing=162
							161:leaf=-0.00753857801
							162:leaf=0.136835262
						136:[f17<-0.83710736] yes=155,no=156,missing=155
							155:leaf=-0.023777077
							156:leaf=0.00246217567
				48:[f10<0.616942346] yes=169,no=170,missing=170
					169:[f16<0.406824261] yes=171,no=172,missing=172
						171:[f10<-0.930235803] yes=185,no=186,missing=186
							185:leaf=0.0406071804
							186:leaf=0.00473913318
						172:leaf=-0.0140975192
					170:leaf=0.0609728992
			22:[f17<-0.303027302] yes=31,no=32,missing=32
				31:[f16<2.60369754] yes=75,no=76,missing=76
					75:[f17<-1.25964475] yes=95,no=96,missing=96
						95:[f16<1.49202681] yes=131,no=132,missing=132
							131:leaf=-0.0277838521
							132:leaf=-0.00109236268
						96:[f3<10.1929407] yes=97,no=98,missing=98
							97:leaf=-0.0180648956
							98:leaf=0.00264411443
					76:[f17<-0.604030311] yes=141,no=142,missing=142
						141:[f10<-0.420231581] yes=143,no=144,missing=144
							143:leaf=-0.0548671335
							144:leaf=0.06886594
						142:leaf=0.124649338
				32:[f10<-0.190939069] yes=113,no=114,missing=114
					113:[f11<-0.27991274] yes=117,no=118,missing=118
						117:[f16<-2.18707442] yes=159,no=160,missing=160
							159:leaf=-0.100753002
							160:leaf=-0.00663330685
						118:[f16<1.80964696] yes=119,no=120,missing=120
							119:leaf=-0.0355398357
							120:leaf=0.0863642991
					114:leaf=-0.0444817692
		16:[f13<-0.8532179] yes=39,no=40,missing=40
			39:[f6<0.952737451] yes=41,no=42,missing=42
				41:[f5<1.1817224] yes=43,no=44,missing=44
					43:[f16<0.909722984] yes=91,no=92,missing=92
						91:leaf=0.00835868996
						92:[f16<0.93619132] yes=93,no=94,missing=94
							93:leaf=-0.107068934
							94:leaf=-0.0117669739
					44:[f16<-0.731314898] yes=123,no=124,missing=124
						123:leaf=-0.122567117
						124:[f8<0.820001662] yes=183,no=184,missing=184
							183:leaf=-0.0536077023
							184:leaf=0.000318248873
				42:[f10<-0.723596036] yes=45,no=46,missing=46
					45:[f16<1.59790015] yes=57,no=58,missing=58
						57:[f4<3.67701912] yes=191,no=192,missing=192
							191:leaf=-0.0578978173
							192:leaf=-0.102613404
						58:leaf=0.0117945066
					46:[f1<2.45811582] yes=79,no=80,missing=80
						79:[f17<0.577386737] yes=129,no=130,missing=130
							129:leaf=-0.00847050827
							130:leaf=-0.0671134293
						80:leaf=-0.0697718039
			40:[f17<0.748606443] yes=65,no=66,missing=66
				65:[f9<-1.62780488] yes=71,no=72,missing=72
					71:[f16<0.909722984] yes=147,no=148,missing=148
						147:[f6<0.952737451] yes=149,no=150,missing=150
							149:leaf=0.0892867818
							150:leaf=0.00630719448
						148:[f16<1.33321667] yes=151,no=152,missing=152
							151:leaf=-0.1094184
							152:leaf=0.0578003079
					72:[f8<2.52925801] yes=73,no=74,missing=74
						73:[f10<2.15243745] yes=101,no=102,missing=102
							101:leaf=-0.00603942806
							102:leaf=-0.023529388
						74:[f16<-1.28715038] yes=189,no=190,missing=190
							189:leaf=0.0319812
							190:leaf=-0.042324461
				66:[f16<0.00979897566] yes=67,no=68,missing=68
					67:[f11<0.968816757] yes=173,no=174,missing=174
						173:[f9<-0.506342411] yes=175,no=176,missing=176
							175:leaf=-0.0225029681
							176:leaf=-0.0597282723
						174:[f17<1.35407615] yes=177,no=178,missing=178
							177:leaf=-0.0290296711
							178:leaf=0.0528147556
					68:[f16<0.0892040357] yes=69,no=70,missing=70
						69:leaf=0.0643587857
						70:[f1<2.45811582] yes=157,no=158,missing=158
							157:leaf=-0.0183630232
							158:leaf=0.0510914624
booster[6]:
0:[f18<1.40359139] yes=1,no=2,missing=2
	1:[f0<0.250427842] yes=3,no=4,missing=4
		3:[f0<-1.3152349] yes=9,no=10,missing=10
			9:[f17<1.32212305] yes=15,no=16,missing=15
				15:[f8<-1.62179315] yes=63,no=64,missing=64
					63:[f16<0.327419221] yes=155,no=156,missing=156
						155:[f16<0.274482518] yes=177,no=178,missing=178
							177:leaf=-0.0277444925
							178:leaf=-0.130689293
						156:[f13<-0.8532179] yes=171,no=172,missing=172
							171:leaf=-0.116631784
							172:leaf=0.00736568635
					64:[f13<-0.8532179] yes=151,no=152,missing=152
						151:[f16<0.0892040357] yes=153,no=154,missing=154
							153:leaf=0.00542152161
							154:leaf=-0.0151425069
						152:[f17<1.20805097] yes=185,no=186,missing=186
							185:leaf=0.0106024072
							186:leaf=0.0018823843
				16:[f9<-1.5892477] yes=55,no=56,missing=56
					55:leaf=-0.00433580764
					56:[f10<-1.04312634] yes=61,no=62,missing=62
						61:[f16<1.43909001] yes=71,no=72,missing=72
							71:leaf=-0.00261015375
							72:leaf=-0.121631317
						62:[f8<1.79671967] yes=83,no=84,missing=84
							83:leaf=0.0169292036
							84:leaf=0.0317353532
			10:[f6<0.952737451] yes=17,no=18,missing=18
				17:[f17<-0.100977078] yes=27,no=28,missing=28
					27:[f8<1.3083607] yes=47,no=48,missing=48
						47:[f16<2.60369754] yes=89,no=90,missing=90
							89:leaf=-0.00244459207
							90:leaf=0.110364027
						48:[f16<-1.76358068] yes=73,no=74,missing=74
							73:leaf=0.0604237802
							74:leaf=-0.0262877569
					28:[f10<-1.12465835] yes=85,no=86,missing=86
						85:leaf=0.0517319068
						86:[f7<3.62816191] yes=135,no=136,missing=136
							135:leaf=0.00804570597
							136:leaf=-0.132478043
				18:[f9<-0.353210896] yes=19,no=20,missing=20
					19:[f8<-1.13343418] yes=31,no=32,missing=32
						31:[f0<-1.07436371] yes=91,no=92,missing=92
							91:leaf=2.04576259e-06
							92:leaf=0.0437214561
						32:[f10<-0.938990295] yes=49,no=50,missing=50
							49:leaf=-0.0445230603
							50:leaf=-0.0028273135
					20:[f0<-0.953928113] yes=21,no=22,missing=22
						21:[f17<1.45407104] yes=35,no=36,missing=36
							35:leaf=-0.0410578921
							36:leaf=-0.0174336918
						22:[f13<-0.8532179] yes=33,no=34,missing=34
							33:leaf=0.0142704723
							34:leaf=-0.0118137263
		4:[f0<0.370863438] yes=5,no=6,missing=6
			5:[f10<0.921337962] yes=7,no=8,missing=8
				7:[f4<3.67701912] yes=29,no=30,missing=30
					29:[f17<0.189197749] yes=45,no=46,missing=45
						45:[f2<2.74040127] yes=77,no=78,missing=78
							77:leaf=0.0244714245
							78:leaf=-0.051324062
						46:[f17<0.583978057] yes=181,no=182,missing=182
							181:leaf=0.034367647
							182:leaf=0.0120640406
					30:[f12<-0.00404859893] yes=75,no=76,missing=76
						75:[f10<-0.582757235] yes=99,no=100,missing=100
							99:leaf=0.00980857015
							100:leaf=-0.0770001486
						76:[f1<2.45811582] yes=125,no=126,missing=126
							125:leaf=0.0219803937
							126:leaf=-0.0688102469
				8:[f17<-0.710925579] yes=25,no=26,missing=25
					25:[f10<2.6048615] yes=103,no=104,missing=104
						103:[f16<-1.57830226] yes=167,no=168,missing=168
							167:leaf=-0.0384889841
							168:leaf=-0.0135424873
						104:[f8<0.575822175] yes=149,no=150,missing=150
							149:leaf=-0.00783359352
							150:leaf=0.0136148203
					26:[f16<1.67730522] yes=81,no=82,missing=82
						81:[f16<-1.4724288] yes=143,no=144,missing=144
							143:leaf=-0.0138374455
							144:leaf=0.00839651097
						82:leaf=0.0599192195
			6:[f10<-0.576218784] yes=13,no=14,missing=14
				13:[f12<-0.00404859893] yes=39,no=40,missing=40
					39:[f6<0.952737451] yes=41,no=42,missing=42
						41:[f8<0.820001662] yes=53,no=54,missing=54
							53:leaf=-0.0103067989
							54:leaf=0.0327915959
						42:[f9<0.926454723] yes=65,no=66,missing=66
							65:leaf=0.0359117575
							66:leaf=0.00572438538
					40:[f8<-1.13343418] yes=109,no=110,missing=110
						109:[f16<-0.41369468] yes=175,no=176,missing=176
							175:leaf=-0.077729851
							176:leaf=-0.0181518514
						110:[f16<-0.440163016] yes=111,no=112,missing=112
							111:leaf=0.0216796678
							112:leaf=-0.00528356154
				14:[f8<-0.400895745] yes=43,no=44,missing=44
					43:[f10<-0.197966293] yes=51,no=52,missing=52
						51:[f16<-0.704846561] yes=133,no=134,missing=134
							133:leaf=0.018537458
							134:leaf=-0.0268882252
						52:[f0<1.69565499] yes=79,no=80,missing=80
							79:leaf=0.0224552806
							80:leaf=-0.0722686648
					44:[f12<-0.00404859893] yes=59,no=60,missing=60
						59:[f16<-2.2135427] yes=101,no=102,missing=102
							101:leaf=-0.12897484
							102:leaf=-0.00809981767
						60:[f16<-0.281352907] yes=87,no=88,missing=88
							87:leaf=-0.0537022352
							88:leaf=-0.021243833
	2:[f0<-0.110878952] yes=11,no=12,missing=12
		11:[f13<-0.8532179] yes=57,no=58,missing=58
			57:leaf=-0.0483843125
			58:[f12<-0.00404859893] yes=113,no=114,missing=114
				113:[f0<-0.713056922] yes=117,no=118,missing=118
					117:[f13<-0.158105701] yes=119,no=120,missing=120
						119:[f8<-1.62179315] yes=183,no=184,missing=184
							183:leaf=-0.000303424371
							184:leaf=-0.0624329299
						120:[f9<0.613864124] yes=173,no=174,missing=174
							173:leaf=-0.0306923613
							174:leaf=0.0272461101
					118:[f0<-0.592621326] yes=121,no=122,missing=122
						121:[f16<-2.13413763] yes=165,no=166,missing=166
							165:leaf=0.123889938
							166:leaf=-0.00332136499
						122:[f17<0.112533018] yes=123,no=124,missing=123
							123:leaf=-0.0317877494
							124:leaf=-0.00105657743
				114:[f10<2.42070699] yes=115,no=116,missing=116
					115:[f10<-0.874775529] yes=157,no=158,missing=158
						157:[f6<0.952737451] yes=189,no=190,missing=190
							189:leaf=-0.00339972856
							190:leaf=-0.0399013683
						158:[f9<-0.980830014] yes=159,no=160,missing=160
							159:leaf=-0.0338885263
							160:leaf=-0.0490523167
					116:[f16<-1.89592242] yes=145,no=146,missing=146
						145:[f6<0.952737451] yes=147,no=148,missing=148
							147:leaf=-0.0145310201
							148:leaf=-0.0779409856
						146:leaf=-0.0158186872
		12:[f17<-0.23373878] yes=23,no=24,missing=23
			23:[f17<-2.04421639] yes=37,no=38,missing=38
				37:leaf=-0.051138252
				38:[f16<0.539166033] yes=105,no=106,missing=106
					105:[f0<1.69565499] yes=107,no=108,missing=108
						107:[f10<-0.336443901] yes=163,no=164,missing=164
							163:leaf=-0.0177198984
							164:leaf=-0.0226901472
						108:[f12<-0.00404859893] yes=131,no=132,missing=132
							131:leaf=-0.0464180671
							132:leaf=-0.0203544479
					106:[f15<9.91110039] yes=127,no=128,missing=128
						127:[f17<-1.86818135] yes=129,no=130,missing=130
							129:leaf=-0.0858886838
							130:leaf=-0.0259514228
						128:[f16<0.697976172] yes=161,no=162,missing=162
							161:leaf=0.0955494121
							162:leaf=-0.00434132852
			24:[f0<0.370863438] yes=67,no=68,missing=68
				67:[f7<3.62816191] yes=137,no=138,missing=138
					137:[f17<-0.173844859] yes=139,no=140,missing=140
						139:[f17<-0.192174509] yes=187,no=188,missing=188
							187:leaf=-0.0311762802
							188:leaf=-0.0646863505
						140:[f17<-0.0535761304] yes=141,no=142,missing=142
							141:leaf=-0.00233246712
							142:leaf=-0.0253195036
					138:leaf=0.116183706
				68:[f8<0.575822175] yes=69,no=70,missing=70
					69:[f0<1.69565499] yes=93,no=94,missing=94
						93:[f16<1.12146986] yes=95,no=96,missing=96
							95:leaf=-0.0109646702
							96:leaf=-0.0283309855
						94:[f16<0.539166033] yes=97,no=98,missing=98
							97:leaf=-0.0711316317
							98:leaf=-0.0169919673
					70:[f16<2.25960898] yes=169,no=170,missing=170
						169:[f12<-0.320348799] yes=179,no=180,missing=180
							179:leaf=0.00231647911
							180:leaf=-0.0123484442
						170:leaf=-0.125661612
booster[7]:
0:[f0<0.370863438] yes=1,no=2,missing=2
	1:[f0<0.250427842] yes=3,no=4,missing=4
		3:[f0<-1.1947993] yes=5,no=6,missing=6
			5:[f6<0.952737451] yes=11,no=12,missing=12
				11:[f17<1.66249037] yes=27,no=28,missing=27
					27:[f11<0.21032922] yes=57,no=58,missing=58
						57:leaf=0.00659867702
						58:[f0<-1.3152349] yes=115,no=116,missing=116
							115:leaf=0.0212461781
							116:leaf=0.00694849668
					28:[f16<-1.89592242] yes=69,no=70,missing=70
						69:leaf=0.0527884848
						70:[f16<1.67730522] yes=101,no=102,missing=102
							101:leaf=0.0218027998
							102:leaf=0.0465017147
				12:[f17<1.49702024] yes=17,no=18,missing=17
					17:[f12<-1.23761928] yes=29,no=30,missing=30
						29:[f0<-1.4356705] yes=33,no=34,missing=34
							33:leaf=-0.0170799606
							34:leaf=-0.0917156562
						30:[f0<-1.3152349] yes=31,no=32,missing=32
							31:leaf=0.00273184152
							32:leaf=-0.0188081879
					18:[f0<-1.3152349] yes=83,no=84,missing=84
						83:[f12<-1.23761928] yes=147,no=148,missing=148
							147:leaf=0.0396411158
							148:leaf=0.0114625413
						84:[f11<0.0623316541] yes=89,no=90,missing=90
							89:leaf=0.0114502935
							90:leaf=-0.00930122845
			6:[f6<0.952737451] yes=19,no=20,missing=20
				19:[f17<-0.403140396] yes=51,no=52,missing=51
					51:[f11<-1.42689395] yes=59,no=60,missing=60
						59:[f16<1.04206479] yes=71,no=72,missing=72
							71:leaf=-0.0332167149
							72:leaf=0.0625093877
						60:[f11<0.145580292] yes=163,no=164,missing=164
							163:leaf=-0.0186079256
							164:leaf=-0.00881896541
					52:[f0<-0.231314555] yes=61,no=62,missing=62
						61:[f9<2.04124355] yes=87,no=88,missing=88
							87:leaf=-0.00566189224
							88:leaf=0.0210939776
						62:[f9<-1.02149415] yes=63,no=64,missing=64
							63:leaf=-0.0398230217
							64:leaf=-0.0113076223
				20:[f17<-0.413953811] yes=35,no=36,missing=35
					35:[f17<-0.427861542] yes=99,no=100,missing=100
						99:[f16<2.23314071] yes=149,no=150,missing=150
							149:leaf=-0.0266514681
							150:leaf=-0.111014239
						100:leaf=-0.0571973398
					36:[f0<-0.953928113] yes=37,no=38,missing=38
						37:[f11<-2.99936819] yes=91,no=92,missing=92
							91:leaf=0.023573719
							92:leaf=-0.0326648243
						38:[f16<-1.10187185] yes=43,no=44,missing=44
							43:leaf=-0.0289062019
							44:leaf=-0.0112797311
		4:[f13<0.537006438] yes=7,no=8,missing=8
			7:[f4<3.67701912] yes=9,no=10,missing=10
				9:[f11<0.598822832] yes=15,no=16,missing=16
					15:[f2<2.74040127] yes=45,no=46,missing=46
						45:[f7<3.62816191] yes=73,no=74,missing=74
							73:leaf=0.0209637228
							74:leaf=0.0277632698
						46:[f1<2.45811582] yes=145,no=146,missing=146
							145:leaf=-0.0454538055
							146:leaf=0.0307057872
					16:[f9<0.00880934298] yes=95,no=96,missing=96
						95:[f7<3.62816191] yes=97,no=98,missing=98
							97:leaf=0.0271735247
							98:leaf=0.0397730023
						96:[f17<-0.911228716] yes=117,no=118,missing=118
							117:leaf=0.0217953343
							118:leaf=0.0379335023
				10:[f6<0.952737451] yes=39,no=40,missing=40
					39:[f11<1.14456391] yes=65,no=66,missing=66
						65:[f16<-1.86945415] yes=93,no=94,missing=94
							93:leaf=-0.104994655
							94:leaf=-0.00188402657
						66:[f17<0.477774471] yes=131,no=132,missing=132
							131:leaf=0.118696831
							132:leaf=-0.0130572347
					40:[f9<-0.732054114] yes=41,no=42,missing=42
						41:[f16<-0.995998442] yes=77,no=78,missing=78
							77:leaf=0.119171657
							78:leaf=-0.00479655992
						42:[f17<0.561178327] yes=55,no=56,missing=56
							55:leaf=-0.0599910282
							56:leaf=0.0411574841
			8:[f9<-1.02757704] yes=23,no=24,missing=24
				23:[f7<3.62816191] yes=47,no=48,missing=48
					47:[f17<-1.25964475] yes=151,no=152,missing=152
						151:leaf=0.000527230965
						152:[f16<1.04206479] yes=153,no=154,missing=154
							153:leaf=-0.0149065489
							154:leaf=0.0152597483
					48:[f16<1.43909001] yes=81,no=82,missing=82
						81:[f16<-1.79004908] yes=161,no=162,missing=162
							161:leaf=0.0616136305
							162:leaf=0.0157059804
						82:leaf=-0.0781590417
				24:[f11<-2.18538141] yes=49,no=50,missing=50
					49:leaf=-0.00244429056
					50:[f9<-0.987610996] yes=79,no=80,missing=80
						79:leaf=0.0298660304
						80:[f4<3.67701912] yes=85,no=86,missing=86
							85:leaf=0.0139219267
							86:leaf=-0.0236653853
	2:[f17<-0.299871147] yes=13,no=14,missing=13
		13:[f17<-1.64574587] yes=21,no=22,missing=22
			21:[f16<-1.10187185] yes=157,no=158,missing=158
				157:[f11<-1.62114072] yes=159,no=160,missing=160
					159:leaf=0.102263272
					160:leaf=-0.0279658493
				158:leaf=-0.0484846458
			22:[f17<-0.862732947] yes=67,no=68,missing=67
				67:[f0<0.611734629] yes=135,no=136,missing=136
					135:[f16<-0.201947853] yes=137,no=138,missing=138
						137:leaf=-0.0642796606
						138:leaf=-0.0264380779
					136:[f0<1.69565499] yes=139,no=140,missing=140
						139:[f16<-2.34588456] yes=143,no=144,missing=144
							143:leaf=0.0309533682
							144:leaf=-0.0230722949
						140:[f17<-1.15742481] yes=141,no=142,missing=142
							141:leaf=-0.0561327189
							142:leaf=-0.0142701268
				68:[f0<1.81609058] yes=119,no=120,missing=120
					119:[f12<1.26115215] yes=123,no=124,missing=124
						123:[f16<-0.0166693777] yes=127,no=128,missing=128
							127:leaf=-0.0163271595
							128:leaf=-0.0224764068
						124:[f16<1.78317869] yes=125,no=126,missing=126
							125:leaf=-0.0140412739
							126:leaf=0.0524709634
					120:[f10<-0.725303948] yes=121,no=122,missing=122
						121:[f16<-1.71064401] yes=129,no=130,missing=130
							129:leaf=0.0657969415
							130:leaf=-0.0636800304
						122:leaf=-0.0220860224
		14:[f17<1.20805097] yes=25,no=26,missing=26
			25:[f17<-0.294660747] yes=103,no=104,missing=104
				103:leaf=0.0144637655
				104:[f17<0.292443097] yes=105,no=106,missing=106
					105:[f16<2.25960898] yes=113,no=114,missing=114
						113:[f16<-0.572504818] yes=133,no=134,missing=134
							133:leaf=-0.0176508278
							134:leaf=-0.00979938451
						114:leaf=-0.0642840639
					106:[f11<1.19081318] yes=107,no=108,missing=108
						107:[f11<0.219579071] yes=111,no=112,missing=112
							111:leaf=-0.0246212035
							112:leaf=0.00922600273
						108:[f0<1.21391261] yes=109,no=110,missing=110
							109:leaf=-0.0167806912
							110:leaf=-0.119603917
			26:[f0<1.3343482] yes=53,no=54,missing=54
				53:leaf=0.0599566475
				54:[f16<-0.572504818] yes=75,no=76,missing=76
					75:leaf=0.0915130004
					76:[f11<1.03356576] yes=155,no=156,missing=156
						155:leaf=-0.130452439
						156:leaf=0.0133292684
booster[8]:
0:[f18<1.40359139] yes=1,no=2,missing=2
	1:[f7<3.62816191] yes=3,no=4,missing=4
		3:[f17<-0.79794538] yes=5,no=6,missing=5
			5:[f9<0.587184846] yes=11,no=12,missing=12
				11:[f11<-2.20388103] yes=25,no=26,missing=26
					25:[f1<2.45811582] yes=69,no=70,missing=70
						69:[f16<-1.57830226] yes=89,no=90,missing=90
							89:leaf=0.0207750518
							90:leaf=-0.00788475294
						70:[f16<-1.52536547] yes=91,no=92,missing=92
							91:leaf=-0.00668008486
							92:leaf=-0.0474059135
					26:[f4<3.67701912] yes=81,no=82,missing=82
						81:[f17<-2.04421639] yes=85,no=86,missing=85
							85:leaf=-0.00994581822
							86:leaf=0.0112785362
						82:[f9<0.246036097] yes=83,no=84,missing=84
							83:leaf=-0.00749186613
							84:leaf=-0.114367105
				12:[f16<-0.466631383] yes=53,no=54,missing=54
					53:[f16<-0.731314898] yes=133,no=134,missing=134
						133:[f16<-1.28715038] yes=135,no=136,missing=136
							135:leaf=0.033391133
							136:leaf=-0.0210497268
						134:leaf=0.0350475237
					54:[f8<0.575822175] yes=55,no=56,missing=56
						55:[f16<-0.201947853] yes=99,no=100,missing=100
							99:leaf=-0.0639754012
							100:leaf=-0.025098579
						56:[f11<0.145580292] yes=137,no=138,missing=138
							137:leaf=-0.00975303072
							138:leaf=0.0374351852
			6:[f6<0.952737451] yes=7,no=8,missing=8
				7:[f4<3.67701912] yes=9,no=10,missing=10
					9:[f8<0.0874632299] yes=27,no=28,missing=28
						27:[f12<0.628551781] yes=29,no=30,missing=30
							29:leaf=0.0129959229
							30:leaf=0.0233378876
						28:[f17<1.56144416] yes=31,no=32,missing=32
							31:leaf=0.00881652161
							32:leaf=0.0197685007
					10:[f10<-0.738028884] yes=33,no=34,missing=34
						33:[f17<-0.541256905] yes=65,no=66,missing=66
							65:leaf=0.0854622498
							66:leaf=0.00912965927
						34:[f17<-0.100977078] yes=35,no=36,missing=36
							35:leaf=-0.00658759475
							36:leaf=-0.0479177237
				8:[f10<-0.583339334] yes=15,no=16,missing=16
					15:[f17<0.577386737] yes=17,no=18,missing=18
						17:[f9<2.14540648] yes=139,no=140,missing=140
							139:leaf=0.014563445
							140:leaf=0.0319403782
						18:[f17<1.81250799] yes=23,no=24,missing=24
							23:leaf=-0.00327688758
							24:leaf=0.0155828511
					16:[f17<2.60833263] yes=41,no=42,missing=42
						41:[f4<3.67701912] yes=71,no=72,missing=72
							71:leaf=0.0032198038
							72:leaf=-0.00955852587
						42:[f16<-1.97532749] yes=79,no=80,missing=80
							79:leaf=-0.0137803247
							80:leaf=0.0415057167
		4:[f11<-0.178164393] yes=19,no=20,missing=20
			19:[f17<-0.820381939] yes=101,no=102,missing=101
				101:[f16<1.04206479] yes=103,no=104,missing=104
					103:[f16<0.909722984] yes=107,no=108,missing=108
						107:leaf=0.000623058178
						108:[f16<0.93619132] yes=157,no=158,missing=158
							157:leaf=-0.158719569
							158:leaf=-0.0375362411
					104:[f17<-2.04421639] yes=105,no=106,missing=106
						105:leaf=-0.121702328
						106:leaf=0.0556991808
				102:[f8<-0.156716257] yes=109,no=110,missing=110
					109:leaf=0.0361888334
					110:[f6<0.952737451] yes=111,no=112,missing=112
						111:[f17<0.748606443] yes=113,no=114,missing=114
							113:leaf=0.00697664963
							114:leaf=-0.136073887
						112:[f2<2.74040127] yes=115,no=116,missing=116
							115:leaf=0.0245148465
							116:leaf=-0.118005782
			20:[f2<2.74040127] yes=39,no=40,missing=40
				39:[f9<1.10413206] yes=159,no=160,missing=160
					159:[f17<0.748606443] yes=167,no=168,missing=167
						167:leaf=0.029018933
						168:[f16<0.300950855] yes=169,no=170,missing=170
							169:leaf=0.0232632272
							170:leaf=-0.107365146
					160:leaf=0.0388193801
				40:[f17<-1.07917416] yes=119,no=120,missing=119
					119:leaf=0.0397251993
					120:leaf=-0.113644354
	2:[f17<-1.40707552] yes=13,no=14,missing=13
		13:[f16<0.750912845] yes=127,no=128,missing=128
			127:[f16<-0.387226313] yes=141,no=142,missing=142
				141:[f17<-1.86818135] yes=163,no=164,missing=163
					163:leaf=-0.0428109877
					164:[f9<-1.12165189] yes=165,no=166,missing=166
						165:leaf=0.0601121411
						166:leaf=-0.0252064485
				142:[f11<0.21032922] yes=143,no=144,missing=144
					143:leaf=-0.0375737883
					144:leaf=-0.0701007098
			128:[f16<0.803849578] yes=129,no=130,missing=130
				129:[f9<-0.435055614] yes=161,no=162,missing=162
					161:leaf=0.150901437
					162:leaf=0.0233630743
				130:[f16<1.67730522] yes=149,no=150,missing=150
					149:[f16<1.2273432] yes=151,no=152,missing=152
						151:leaf=-0.0385956429
						152:[f11<0.46007511] yes=153,no=154,missing=154
							153:leaf=0.018290149
							154:leaf=-0.0507873483
					150:[f8<-0.156716257] yes=155,no=156,missing=156
						155:leaf=-0.00588914379
						156:leaf=-0.0813781917
		14:[f2<2.74040127] yes=21,no=22,missing=22
			21:[f16<1.67730522] yes=37,no=38,missing=38
				37:[f9<-0.506342411] yes=73,no=74,missing=74
					73:[f11<-2.68178988] yes=93,no=94,missing=94
						93:[f10<-1.2255075] yes=147,no=148,missing=148
							147:leaf=-0.0163808465
							148:leaf=-0.0650029033
						94:[f9<-0.554016054] yes=131,no=132,missing=132
							131:leaf=-0.0135159791
							132:leaf=-0.000584518595
					74:[f10<-0.172378048] yes=121,no=122,missing=122
						121:[f9<0.489014119] yes=123,no=124,missing=124
							123:leaf=-0.020168839
							124:leaf=-0.012474589
						122:[f16<1.35968494] yes=125,no=126,missing=126
							125:leaf=-0.0229856372
							126:leaf=0.002754346
				38:[f17<-0.604030311] yes=49,no=50,missing=50
					49:[f17<-0.720333397] yes=95,no=96,missing=96
						95:[f9<-0.524347723] yes=97,no=98,missing=98
							97:leaf=0.0191481654
							98:leaf=-0.0445701666
						96:leaf=-0.0778567865
					50:[f17<-0.559942961] yes=63,no=64,missing=64
						63:leaf=0.0507463142
						64:[f16<1.88905203] yes=77,no=78,missing=78
							77:leaf=-0.0390001088
							78:leaf=-0.00662464509
			22:[f6<0.952737451] yes=43,no=44,missing=44
				43:[f16<-1.89592242] yes=51,no=52,missing=52
					51:[f17<-0.100977078] yes=57,no=58,missing=58
						57:[f4<3.67701912] yes=117,no=118,missing=118
							117:leaf=0.0512240343
							118:leaf=-0.0846862495
						58:[f16<-2.10766935] yes=87,no=88,missing=88
							87:leaf=0.00785061531
							88:leaf=-0.104836255
					52:[f16<1.14793813] yes=59,no=60,missing=60
						59:[f10<-1.0227735] yes=145,no=146,missing=146
							145:leaf=-0.0524181388
							146:leaf=-0.0213422533
						60:[f8<1.06418121] yes=61,no=62,missing=62
							61:leaf=0.023203643
							62:leaf=-0.0377367623
				44:[f17<-0.549589157] yes=45,no=46,missing=46
					45:leaf=-0.0466833524
					46:[f9<0.789039195] yes=47,no=48,missing=48
						47:[f10<-0.450870097] yes=75,no=76,missing=76
							75:leaf=-0.0425579585
							76:leaf=-0.0243803151
						48:[f16<-1.76358068] yes=67,no=68,missing=68
							67:leaf=-0.0659466535
							68:leaf=0.00985639542
booster[9]:
0:[f18<1.40359139] yes=1,no=2,missing=2
	1:[f0<0.129992247] yes=3,no=4,missing=4
		3:[f0<-1.3152349] yes=13,no=14,missing=14
			13:[f17<0.477774471] yes=31,no=32,missing=32
				31:[f16<1.28027987] yes=131,no=132,missing=132
					131:[f16<0.93619132] yes=137,no=138,missing=138
						137:[f17<0.154757097] yes=139,no=140,missing=140
							139:leaf=-0.0904552713
							140:leaf=-0.00878664106
						138:leaf=0.0743433982
					132:[f10<-0.661035359] yes=133,no=134,missing=134
						133:leaf=-0.11430303
						134:[f16<1.43909001] yes=135,no=136,missing=136
							135:leaf=-0.0622034185
							136:leaf=0.101672627
				32:[f16<-0.810719967] yes=33,no=34,missing=34
					33:[f17<2.27114081] yes=47,no=48,missing=48
						47:[f17<0.583978057] yes=63,no=64,missing=64
							63:leaf=0.0385255516
							64:leaf=-0.00674428185
						48:[f9<-1.46136951] yes=69,no=70,missing=70
							69:leaf=-0.0567250699
							70:leaf=0.00999934226
					34:[f17<0.992247283] yes=125,no=126,missing=126
						125:[f17<0.868887246] yes=129,no=130,missing=130
							129:leaf=0.00786413066
							130:leaf=-0.0102674449
						126:[f10<-0.583339334] yes=127,no=128,missing=128
							127:leaf=0.0112809055
							128:leaf=0.0041181338
			14:[f13<-0.71419543] yes=17,no=18,missing=18
				17:[f16<-1.81651735] yes=49,no=50,missing=50
					49:[f0<-1.1947993] yes=51,no=52,missing=52
						51:leaf=-0.0773504898
						52:leaf=0.0878263637
					50:[f9<0.783482015] yes=119,no=120,missing=120
						119:[f17<-1.40707552] yes=153,no=154,missing=154
							153:leaf=0.043528866
							154:leaf=-0.00064598379
						120:[f8<1.79671967] yes=121,no=122,missing=122
							121:leaf=0.02144273
							122:leaf=-0.016869586
				18:[f17<-1.49610746] yes=19,no=20,missing=20
					19:leaf=-0.0766305476
					20:[f13<-0.57517302] yes=21,no=22,missing=22
						21:[f16<2.60369754] yes=35,no=36,missing=36
							35:leaf=-0.0148841366
							36:leaf=0.153514579
						22:[f11<1.03356576] yes=25,no=26,missing=26
							25:leaf=-0.00175250054
							26:leaf=-0.0344811194
		4:[f11<-0.908902407] yes=5,no=6,missing=6
			5:[f16<-1.63123894] yes=75,no=76,missing=76
				75:[f11<-1.83388722] yes=81,no=82,missing=82
					81:leaf=0.0210912917
					82:[f17<-0.361149192] yes=85,no=86,missing=86
						85:leaf=-0.0272523109
						86:[f6<0.952737451] yes=87,no=88,missing=88
							87:leaf=-0.0146582276
							88:leaf=0.0800444335
				76:[f16<-1.57830226] yes=77,no=78,missing=78
					77:leaf=-0.0871614888
					78:[f10<-1.2255075] yes=79,no=80,missing=80
						79:[f7<3.62816191] yes=91,no=92,missing=92
							91:leaf=0.07432919
							92:leaf=-0.0173399597
						80:[f0<0.250427842] yes=143,no=144,missing=144
							143:leaf=-0.047496032
							144:leaf=-0.0051872246
			6:[f0<0.370863438] yes=7,no=8,missing=8
				7:[f11<0.339827091] yes=55,no=56,missing=56
					55:[f9<1.34170198] yes=61,no=62,missing=62
						61:[f10<1.16510797] yes=141,no=142,missing=142
							141:leaf=0.00515129883
							142:leaf=0.0137875387
						62:leaf=0.0183898713
					56:leaf=0.0113972006
				8:[f9<-0.24490948] yes=57,no=58,missing=58
					57:[f17<-1.29654491] yes=71,no=72,missing=71
						71:leaf=-0.0425078087
						72:[f17<-0.678410172] yes=95,no=96,missing=96
							95:leaf=0.0269922744
							96:leaf=0.00531947985
					58:[f13<-0.158105701] yes=59,no=60,missing=60
						59:[f9<2.00624967] yes=93,no=94,missing=94
							93:leaf=0.00645293249
							94:leaf=-0.0125675583
						60:[f11<-0.289162576] yes=109,no=110,missing=110
							109:leaf=0.0222857445
							110:leaf=-0.0120497076
	2:[f0<0.370863438] yes=9,no=10,missing=10
		9:[f17<-0.55625248] yes=15,no=16,missing=15
			15:[f0<0.00955664646] yes=111,no=112,missing=112
				111:[f17<-0.744755507] yes=113,no=114,missing=113
					113:[f16<0.93619132] yes=161,no=162,missing=162
						161:[f8<-1.86597264] yes=173,no=174,missing=174
							173:leaf=-0.069826737
							174:leaf=-0.0181265157
						162:leaf=-0.0499481671
					114:[f17<-0.709398448] yes=115,no=116,missing=116
						115:[f1<2.45811582] yes=123,no=124,missing=124
							123:leaf=0.0448625274
							124:leaf=-0.0342682563
						116:[f16<-1.04893517] yes=165,no=166,missing=166
							165:leaf=-0.0330258943
							166:leaf=-0.00590700656
				112:[f11<0.598822832] yes=117,no=118,missing=118
					117:[f16<-0.0431377329] yes=155,no=156,missing=156
						155:[f16<-0.14901115] yes=157,no=158,missing=158
							157:leaf=-0.0255514979
							158:leaf=0.0475280806
						156:[f17<-0.83710736] yes=159,no=160,missing=160
							159:leaf=-0.00826272834
							160:leaf=-0.0478755087
					118:[f11<0.645072103] yes=163,no=164,missing=164
						163:[f16<-0.731314898] yes=171,no=172,missing=172
							171:leaf=-0.0189191382
							172:leaf=0.110752344
						164:leaf=-0.021124199
			16:[f10<2.02932763] yes=23,no=24,missing=24
				23:[f9<-1.5892477] yes=73,no=74,missing=74
					73:leaf=-0.0450734384
					74:[f17<0.868887246] yes=89,no=90,missing=90
						89:[f11<1.09831464] yes=97,no=98,missing=98
							97:leaf=-0.00843702629
							98:leaf=-0.0236404762
						90:[f8<2.52925801] yes=151,no=152,missing=152
							151:leaf=-0.0270006396
							152:leaf=0.0546921156
				24:[f10<2.15243745] yes=101,no=102,missing=102
					101:[f0<-0.592621326] yes=145,no=146,missing=146
						145:[f16<-0.228416204] yes=147,no=148,missing=148
							147:leaf=0.00939283427
							148:leaf=-0.0648027584
						146:[f16<-1.52536547] yes=149,no=150,missing=150
							149:leaf=-0.0243963394
							150:leaf=0.0340162404
					102:[f16<0.0892040357] yes=103,no=104,missing=104
						103:[f16<-2.34588456] yes=107,no=108,missing=108
							107:leaf=0.0499432869
							108:leaf=-0.010629273
						104:[f10<2.6048615] yes=105,no=106,missing=106
							105:leaf=0.00337195955
							106:leaf=0.0936444625
		10:[f17<0.292443097] yes=11,no=12,missing=11
			11:[f0<2.41826868] yes=29,no=30,missing=30
				29:[f11<0.543323755] yes=37,no=38,missing=38
					37:[f9<0.521460354] yes=53,no=54,missing=54
						53:[f16<0.56563437] yes=65,no=66,missing=66
							65:leaf=-0.000470578845
							66:leaf=-0.00964068342
						54:[f17<-0.23373878] yes=67,no=68,missing=68
							67:leaf=-0.00979353394
							68:leaf=0.0361539833
					38:[f17<-0.403140396] yes=39,no=40,missing=40
						39:[f17<-0.471935302] yes=83,no=84,missing=84
							83:leaf=-0.0112405829
							84:leaf=-0.0240596589
						40:[f16<-1.26068199] yes=41,no=42,missing=42
							41:leaf=0.0187619366
							42:leaf=-0.00692577753
				30:leaf=-0.0323691815
			12:[f9<-1.81864083] yes=27,no=28,missing=28
				27:leaf=-0.112236679
				28:[f16<-0.307821274] yes=43,no=44,missing=44
					43:[f16<-0.387226313] yes=167,no=168,missing=168
						167:[f16<-1.57830226] yes=169,no=170,missing=170
							169:leaf=0.0569391772
							170:leaf=0.0164133795
						168:leaf=0.0743346736
					44:[f16<2.25960898] yes=45,no=46,missing=46
						45:[f16<-0.228416204] yes=99,no=100,missing=100
							99:leaf=-0.0468035303
							100:leaf=0.0032094887
						46:leaf=0.114585221
